{"type":"NeuralNetwork","sizes":[75,37,1],"layers":[{"weights":[],"biases":[]},{"weights":[[0.17642250657081604,-0.027735445648431778,-0.004102890845388174,-0.14285126328468323,-0.08189667016267776,-0.022336604073643684,-0.1242898479104042,-0.15404610335826874,0.023506151512265205,0.14272858202457428,0.025787580758333206,-0.09393808990716934,0.12234342843294144,0.07688086479902267,0.0542859323322773,-0.067557692527771,0.10587207973003387,-0.17710065841674805,-0.19622132182121277,-0.19135147333145142,-0.0821559727191925,0.15205004811286926,0.16065126657485962,0.11083872616291046,-0.09093216061592102,-0.06582622975111008,0.05708407983183861,0.08635552227497101,0.07636387646198273,-0.003341617761179805,0.1268128901720047,-0.06765088438987732,0.1359822154045105,-0.030230805277824402,-0.14635038375854492,-0.10207583755254745,0.05541360750794411,0.10626442730426788,-0.12568211555480957,0.14826245605945587,-0.19148030877113342,0.05668921768665314,0.03487548977136612,0.06972546875476837,0.10730058699846268,0.06514488160610199,0.07782522588968277,0.0009862134465947747,-0.0868556946516037,0.07880508154630661,0.009865893051028252,-0.16261829435825348,-0.14336493611335754,-0.171864852309227,0.01728340983390808,-0.14786918461322784,-0.19119217991828918,-0.1704416126012802,0.11705376207828522,-0.17954006791114807,-0.18896685540676117,-0.15078601241111755,0.12234646826982498,0.16711941361427307,-0.1980942189693451,0.04113351181149483,0.013444763608276844,0.17419195175170898,-0.18775798380374908,-0.020846180617809296,0.1834469586610794,0.16226044297218323,-0.16517099738121033,0.08796380460262299,0.0371740348637104],[-0.15084652602672577,-0.10408641397953033,0.16903242468833923,0.1751824915409088,0.18838658928871155,-0.11334538459777832,0.15192316472530365,-0.05383552610874176,0.05658921226859093,-0.049153778702020645,-0.13787494599819183,-0.07353052496910095,0.04744381830096245,-0.068239226937294,0.0661049336194992,0.04587503522634506,0.1918252855539322,0.20210741460323334,0.030483823269605637,-0.07197752594947815,-0.06843799352645874,-0.04567446932196617,-0.07877576351165771,0.13354559242725372,-0.1503235399723053,0.0033271941356360912,0.08975672721862793,-0.07358775287866592,-0.15022817254066467,0.14400708675384521,-0.08812108635902405,-0.05757657438516617,0.10830286145210266,-0.0030747978016734123,0.15118162333965302,-0.07576930522918701,-0.05016027390956879,0.14673922955989838,-0.011706728488206863,-0.11536281555891037,-0.14546990394592285,0.15403765439987183,-0.17142736911773682,0.023092422634363174,0.09307848662137985,-0.041167765855789185,0.11565915495157242,-0.011093231849372387,0.1492301970720291,0.1933828592300415,-0.07230935990810394,-0.09163801372051239,0.039114855229854584,0.06459512561559677,-0.13066768646240234,0.15735389292240143,-0.07600425183773041,0.18255183100700378,0.03034071996808052,0.17575132846832275,0.01240464486181736,0.0025792100932449102,0.1978047788143158,-0.09318548440933228,0.02111116237938404,0.12331397831439972,-0.0456995889544487,-0.10193406045436859,0.15029948949813843,-0.041680268943309784,0.10612551122903824,-0.10753867030143738,-0.11901091039180756,-0.15431013703346252,-0.1702108383178711],[0.06932652741670609,0.1842707097530365,0.08018326759338379,0.06840961426496506,-0.04572632908821106,-0.1873653084039688,-0.0843067467212677,-0.06541156768798828,0.08330038189888,0.006137562450021505,-0.1882905811071396,0.11010546237230301,0.03701622784137726,-0.01531163975596428,-0.16263346374034882,0.04050840064883232,0.13790340721607208,-0.17186518013477325,0.08981314301490784,-0.15958186984062195,0.10256671160459518,0.05838647484779358,-0.1308751106262207,0.0362275205552578,-0.1428980976343155,-0.012914524413645267,-0.04096850007772446,-0.16326454281806946,0.1743273288011551,-0.02594592422246933,0.05013050138950348,0.13431113958358765,-0.15564604103565216,0.003479437669739127,-0.07094420492649078,-0.11134861409664154,-0.09029265493154526,0.1364554613828659,0.02362878806889057,0.20093096792697906,0.11965496093034744,-0.0034921185579150915,0.20351649820804596,-0.17956669628620148,-0.1097976490855217,-0.00493617495521903,0.13727329671382904,0.04431084543466568,-0.12418333441019058,0.09020397812128067,-0.14303052425384521,0.034358490258455276,0.07826756685972214,0.18443246185779572,0.1351454257965088,0.06872985512018204,0.12372224032878876,0.026755549013614655,0.08474691212177277,-0.19361762702465057,-0.1939540058374405,0.1749381572008133,-0.15879331529140472,-0.0072754803113639355,-0.13228265941143036,-0.1298176497220993,0.1833035796880722,0.18479907512664795,0.17968402802944183,0.0012284904951229692,0.01966528780758381,0.08305336534976959,-0.08639587461948395,0.05668038874864578,-0.18891586363315582],[-0.072084441781044,0.11005693674087524,0.039275314658880234,0.17065957188606262,-0.05473732203245163,-0.014106912538409233,0.03458252549171448,-0.11463664472103119,0.13061527907848358,-0.051722053438425064,0.043574776500463486,-0.18217745423316956,0.07930071651935577,0.14000070095062256,0.1834585964679718,0.1418430656194687,-0.19585567712783813,0.030090603977441788,-0.1685301959514618,0.12267530709505081,-0.029323989525437355,-0.10881519317626953,-0.1656111478805542,0.11166799068450928,-0.02156146429479122,0.07578422874212265,0.19907522201538086,-0.12536704540252686,-0.0986807718873024,0.16852812469005585,0.1650329828262329,0.1639234572649002,-0.1965692937374115,0.1081303134560585,0.06834521889686584,-0.06968623399734497,0.11055142432451248,-0.11366130411624908,-0.1558576077222824,0.09733889997005463,0.015802213922142982,-0.11499576270580292,0.19315196573734283,-0.04066162928938866,0.1299913078546524,0.034428324550390244,0.09759975224733353,0.16088122129440308,-0.08817009627819061,0.12542513012886047,-0.17826123535633087,0.0912916362285614,-0.1357244849205017,-0.09618248790502548,0.1438244730234146,0.11214279383420944,0.06416355073451996,0.13779954612255096,0.18354643881320953,-0.1412120759487152,0.11909786611795425,-0.0992918536067009,-0.15832753479480743,-0.048292748630046844,-0.08997230231761932,-0.13949212431907654,-0.06941353529691696,0.062241628766059875,-0.0685262382030487,-0.0007450861157849431,-0.18251661956310272,0.17496207356452942,0.19652318954467773,-0.1909101903438568,0.021431004628539085],[-0.04149748757481575,-0.08782347291707993,0.07417962700128555,-0.10934419929981232,-0.003159521147608757,0.02258024550974369,-0.07453019171953201,0.16348132491111755,0.12736372649669647,0.08850376307964325,-0.13742977380752563,-0.15698513388633728,-0.008749248459935188,-0.039014268666505814,0.09341452270746231,0.11360334604978561,0.02994287572801113,-0.107428640127182,0.1924862265586853,0.20349466800689697,0.01589183509349823,0.14601637423038483,-0.05926159769296646,0.05309140682220459,-0.1788969337940216,0.001506227650679648,0.173321932554245,-0.10703316330909729,0.12185436487197876,0.1701401025056839,0.15801475942134857,-0.1797652393579483,-0.04429496452212334,0.06501909345388412,0.1222800761461258,0.17779429256916046,0.10421034693717957,0.0025950546842068434,-0.011897481046617031,0.09652573615312576,-0.01712418533861637,-0.15520286560058594,-0.011063091456890106,0.137966588139534,-0.16832971572875977,-0.08203590661287308,-0.07355738431215286,-0.16686473786830902,0.20260602235794067,-0.07897958159446716,-0.1138286143541336,-0.12470408529043198,-0.0010308909695595503,-0.06514337658882141,0.17014557123184204,-0.031782928854227066,0.12682412564754486,-0.007162459660321474,0.010731784626841545,-0.02671649493277073,0.17655688524246216,-0.1843765825033188,0.20683786273002625,0.11186815053224564,0.1892930418252945,0.14850148558616638,-0.03404192626476288,-0.06148700416088104,-0.06717874109745026,0.11201062053442001,0.13907484710216522,-0.04619975760579109,-0.16294533014297485,0.007127819117158651,-0.14330479502677917],[-0.0368461087346077,0.17791445553302765,0.09422949701547623,0.11452556401491165,-0.1306639462709427,-0.03999635949730873,-0.007084198296070099,0.1897001713514328,-0.06885576248168945,0.044240910559892654,-0.09653698652982712,0.10450369119644165,-0.1272302120923996,0.1791006177663803,0.07587254792451859,-0.10659829527139664,-0.13383585214614868,0.01681349240243435,0.11019525676965714,0.07232964038848877,-0.07343469560146332,0.13555260002613068,-0.08384446054697037,0.008610691875219345,-0.05354186147451401,-0.010094302706420422,0.009520666673779488,0.005018862895667553,-0.128729447722435,-0.16200555860996246,-0.1651136577129364,0.14979612827301025,-0.18661148846149445,0.024670042097568512,0.1809389293193817,0.12395110726356506,0.11363135278224945,0.19609004259109497,0.0872940868139267,-0.018689706921577454,-0.0077675417996943,0.1145867258310318,0.12360966205596924,-0.07294390350580215,0.06381012499332428,-0.046509381383657455,0.015544002875685692,0.18119946122169495,0.11603981256484985,-0.09652671962976456,0.14069139957427979,-0.06510483473539352,0.17400234937667847,-0.14334793388843536,0.05017008259892464,-0.13356968760490417,-0.13359802961349487,-0.04670700430870056,0.14488019049167633,-0.03510542958974838,0.022138236090540886,0.08576009422540665,-0.19568775594234467,0.03278227522969246,-0.07404642552137375,0.13495369255542755,0.053487442433834076,-0.10420725494623184,-0.07033853977918625,-0.04335150122642517,0.006493224762380123,-0.09900970757007599,-0.16852103173732758,0.1962902992963791,0.163264662027359],[0.18670709431171417,0.07535337656736374,0.15491627156734467,-0.12298468500375748,0.011313718743622303,-0.026853444054722786,0.13259907066822052,-0.007721001282334328,-0.11969385296106339,0.12251491844654083,0.060801032930612564,-0.14935550093650818,-0.12759415805339813,-0.021853717043995857,-0.03221264109015465,-0.16214126348495483,-0.07959658652544022,0.10312428325414658,0.05992088094353676,0.10920615494251251,-0.02359694615006447,0.056535180658102036,0.0814213827252388,0.011592832393944263,-0.1302926242351532,0.06888134777545929,0.19010844826698303,-0.09346466511487961,0.044765226542949677,-0.18764542043209076,-0.03596573695540428,0.06551669538021088,0.04418536275625229,0.0917743593454361,0.054884083569049835,0.029439520090818405,-0.12237002700567245,-0.15928566455841064,-0.0027357940562069416,0.03389018401503563,0.04459839686751366,0.16774308681488037,-0.003043987089768052,0.1278763711452484,0.11025647819042206,0.038401857018470764,0.09125253558158875,-0.13874803483486176,0.09323976188898087,-0.06676743924617767,0.10196997970342636,-0.01901397481560707,0.10643766075372696,-0.07026836276054382,-0.16749492287635803,-0.12010050565004349,0.15212395787239075,-0.010337939485907555,0.1410100907087326,0.0847364217042923,0.14296576380729675,0.17031742632389069,-0.16262736916542053,-0.18611875176429749,0.12778465449810028,-0.02220599539577961,0.029120223596692085,0.17089703679084778,0.08888567239046097,-0.04477164149284363,-0.16636890172958374,0.05191836878657341,-0.1486976444721222,-0.14107201993465424,-0.08995658159255981],[0.03994503617286682,-0.1144750639796257,0.15901315212249756,0.08876214176416397,0.14862896502017975,-0.0031256596557796,-0.08317267894744873,-0.07796481996774673,0.14936402440071106,0.11146166175603867,0.00201595202088356,-0.175733745098114,0.11829102784395218,-0.19018270075321198,-0.06465603411197662,0.15191122889518738,-0.10339032858610153,-0.013874604366719723,-0.12593336403369904,0.12885794043540955,0.06348464637994766,0.07829588651657104,0.010830727405846119,0.12080870568752289,-0.11473353952169418,0.17299096286296844,0.14679349958896637,0.13599640130996704,-0.10092155635356903,0.09786469489336014,-0.18838301301002502,0.020036693662405014,0.18142013251781464,0.16365516185760498,0.15206296741962433,-0.10302789509296417,-0.030426908284425735,0.1736297905445099,-0.05098400637507439,-0.13817259669303894,-0.06697630137205124,-0.004042727407068014,-0.04354030266404152,-0.09166775643825531,0.022046396508812904,0.04418960586190224,-0.034252725541591644,-0.01846870221197605,0.0014692910481244326,0.16699740290641785,0.18201705813407898,0.06995313614606857,-0.011655247770249844,-0.15179798007011414,-0.0652472972869873,-0.16719354689121246,0.16844168305397034,-0.05233706533908844,-0.09792643040418625,-0.0211316104978323,0.13662908971309662,0.02467346005141735,0.006207118276506662,-0.13678669929504395,0.07102295011281967,-0.12537014484405518,0.14022406935691833,0.1765487641096115,-0.14146995544433594,-0.1866832971572876,-0.19460584223270416,-0.1858454793691635,-0.01942824386060238,0.185237318277359,0.0028437587898224592],[0.047562021762132645,0.056550800800323486,0.12258155643939972,0.0009386218152940273,0.09037863463163376,-0.04971205070614815,-0.0556526742875576,0.003066775156185031,0.14422708749771118,-0.07206305116415024,0.03258683532476425,0.05691986158490181,0.19612866640090942,-0.14976820349693298,-0.15902239084243774,0.16683374345302582,0.034611355513334274,-0.09838259965181351,-0.16141141951084137,0.04202759638428688,0.20296072959899902,-0.19385968148708344,-0.03537856787443161,0.1879158467054367,0.1491570770740509,-0.17211034893989563,-0.05259013921022415,-0.06188518553972244,-0.12500445544719696,-0.1138964369893074,-0.12037039548158646,-0.14640101790428162,-0.18907473981380463,0.08660256117582321,0.16769255697727203,0.10873786360025406,-0.061520013958215714,-0.04312055557966232,0.030533459037542343,-0.02182365208864212,0.14579014480113983,0.18064481019973755,-0.1139097511768341,-0.049368716776371,-0.0013051782734692097,0.09451069682836533,-0.054549165070056915,-0.11818069219589233,0.040394097566604614,0.10150203108787537,-0.04338354244828224,-0.16781331598758698,0.17111995816230774,0.05295383930206299,-0.02087879553437233,-0.03731084242463112,-0.008698096498847008,0.072996586561203,0.1527465283870697,-0.1690964549779892,-0.07710585743188858,-0.002363749546930194,0.00887470506131649,-0.14669987559318542,-0.17553271353244781,-0.11660005897283554,-0.1599268764257431,0.17704693973064423,-0.10231510549783707,0.13905638456344604,0.1593148559331894,-0.19425447285175323,-0.14692941308021545,-0.10898253321647644,-0.15884137153625488],[-0.052361682057380676,-0.044725604355335236,-0.08759455382823944,-0.08950407803058624,0.15099845826625824,0.06185392290353775,0.12739625573158264,0.02472851425409317,-0.16610771417617798,-0.09351857751607895,0.09706660360097885,-0.1615806519985199,0.11764843016862869,0.1849185824394226,0.10482493042945862,0.08787368983030319,-0.029881060123443604,-0.15997326374053955,0.07029258459806442,-0.04519050568342209,-0.13229648768901825,0.09891756623983383,0.17769767343997955,-0.07084167748689651,0.18000441789627075,-0.17836105823516846,-0.1468256711959839,-0.1558361053466797,-0.0511067695915699,-0.18939168751239777,0.1644057333469391,-0.07364116609096527,0.015161184594035149,-0.10554968565702438,0.06320729851722717,-0.00507491547614336,0.07419176399707794,0.15082420408725739,-0.018392672762274742,0.191335529088974,-0.05600670352578163,-0.016274385154247284,-0.07108821719884872,-0.12706781923770905,0.17406798899173737,-0.09387628734111786,0.010157143697142601,-0.18377211689949036,0.2005344182252884,0.19233641028404236,0.10857518762350082,-0.038482438772916794,-0.09822896122932434,-0.001579150790348649,-0.08099692314863205,-0.0038241047877818346,0.13702146708965302,0.022955143824219704,-0.0266730897128582,0.10924176126718521,-0.027900349348783493,0.18864355981349945,-0.05223897844552994,-0.10918682813644409,0.010457483120262623,0.035337191075086594,0.19418329000473022,0.17717991769313812,-0.1192811131477356,0.18826168775558472,0.07568322122097015,-0.06391243636608124,-0.10055225342512131,-0.1883428543806076,-0.08290748298168182],[-0.08017899841070175,0.0951787680387497,-0.05510443449020386,0.1081024780869484,0.18527580797672272,0.045155011117458344,0.10965894907712936,0.21039284765720367,-0.11508890241384506,-0.022036239504814148,-0.16558954119682312,-0.10030419379472733,0.02600766159594059,-0.05065353959798813,-0.020147249102592468,-0.12945556640625,0.002435204805806279,0.06752492487430573,-0.16103951632976532,0.019354097545146942,0.1838010847568512,0.16727972030639648,0.04595428705215454,-0.0992196574807167,0.11956124752759933,0.0381658598780632,-0.024426739662885666,-0.05939847603440285,0.20622575283050537,-0.023593517020344734,0.20646429061889648,-0.1817048043012619,-0.048974454402923584,0.2054576277732849,0.06896360963582993,-0.13852038979530334,-0.18292951583862305,-0.07975046336650848,0.002394814742729068,0.08563455194234848,0.19306866824626923,-0.11911303550004959,0.1737176775932312,-0.1576848328113556,-0.1342756599187851,0.008420223370194435,-0.006692790426313877,0.12226510047912598,0.14381511509418488,0.05346627160906792,0.08781102299690247,-0.02866539917886257,0.10781393945217133,0.0325675867497921,0.06311874836683273,0.14462733268737793,0.0601084902882576,0.14288698136806488,0.18271426856517792,-0.06157206743955612,-0.13602375984191895,-0.1559888869524002,0.19325204193592072,-0.03003811649978161,-0.07271513342857361,-0.06164068356156349,0.11517829447984695,-0.07868094742298126,-0.13568055629730225,0.11640974134206772,0.062385011464357376,-0.0012521856697276235,-0.18637622892856598,0.16146264970302582,0.20600202679634094],[-0.07689890265464783,0.05276169627904892,0.07994243502616882,-0.18523752689361572,0.06734651327133179,-0.15512073040008545,-0.15970323979854584,-0.019256487488746643,-0.005018580239266157,-0.025667984038591385,0.17754429578781128,0.1019473522901535,-0.14190156757831573,0.14743375778198242,0.02711918018758297,-0.048965517431497574,0.19681204855442047,-0.16208656132221222,0.04696256294846535,-0.10963348299264908,-0.08615291118621826,0.09237757325172424,0.11667049676179886,0.15830852091312408,-0.032270900905132294,-0.16641521453857422,-0.021078603342175484,-0.11569654941558838,-0.046406179666519165,-0.11942259967327118,-0.0914277508854866,0.12674133479595184,-0.09830939024686813,0.09137915074825287,0.051515888422727585,-0.0313103012740612,0.06412405520677567,-0.11684224009513855,-0.10003698617219925,-0.16688279807567596,-0.09004487842321396,-0.1488802284002304,0.10782166570425034,-0.05237007141113281,0.039244771003723145,-0.11567685008049011,0.038966163992881775,-0.048622921109199524,0.022964024916291237,-0.17924049496650696,-0.08268387615680695,0.15063045918941498,-0.05126167833805084,-0.010359436273574829,-0.17145057022571564,0.03444106876850128,-0.0074534229934215546,-0.01028663944453001,-0.012728669680655003,0.16818790137767792,0.010606149211525917,0.19842101633548737,-0.18691690266132355,0.12585781514644623,-0.03215145319700241,0.16454850137233734,-0.030914943665266037,-0.11095733940601349,0.055334027856588364,-0.05684381723403931,0.09403379261493683,-0.14306758344173431,-0.13948732614517212,0.14657162129878998,0.19696888327598572],[-0.17014764249324799,-0.09460601955652237,-0.0617842860519886,-0.09609155356884003,-0.05874593183398247,-0.12727569043636322,-0.1235228180885315,-0.021978547796607018,-0.19926954805850983,0.14363326132297516,0.19076567888259888,0.023348668590188026,0.0990927517414093,-0.018824933096766472,0.0971880853176117,0.168250173330307,-0.1366555392742157,0.10102013498544693,-0.07051181048154831,0.0034726469311863184,-0.10677603632211685,-0.14432838559150696,-0.05089917406439781,0.08036156743764877,-0.0014675833517685533,0.0014229853404685855,-0.07384466379880905,0.13284710049629211,-0.03568538278341293,-0.19797110557556152,-0.1838170289993286,0.16948328912258148,-0.005086095072329044,0.028182126581668854,-0.1308232694864273,-0.04952118918299675,-0.015670180320739746,-0.05586365610361099,0.13699696958065033,-0.05250951647758484,-0.12230982631444931,0.03885777294635773,-0.10124099999666214,-0.06917238235473633,0.013979196548461914,-0.0072341435588896275,0.0855034664273262,-0.022551245987415314,0.029367972165346146,0.14281904697418213,0.11360446363687515,-0.05217842012643814,-0.051842108368873596,-0.15821900963783264,-0.021510794758796692,0.059976402670145035,0.09807569533586502,-0.03195929899811745,0.14694011211395264,-0.008488685823976994,-0.0770413726568222,-0.0308982003480196,-0.1979745775461197,0.1693975180387497,0.07866710424423218,0.019529497250914574,0.02349836751818657,-0.18105044960975647,0.15513578057289124,0.07243748009204865,-0.06585700064897537,-0.15080243349075317,-0.18184801936149597,-0.0944988802075386,0.19329990446567535],[0.07370097190141678,-0.03007430210709572,-0.1537609100341797,-0.019442103803157806,-0.1469573825597763,-0.13441087305545807,-0.07175257056951523,-0.19395214319229126,-0.053648557513952255,0.13221773505210876,-0.19902077317237854,-0.025948718190193176,0.1424075961112976,-0.043765731155872345,-0.07735827565193176,0.0113859036937356,-0.1780761182308197,-0.14250703155994415,0.11605721712112427,-0.03367483615875244,-0.01184056419879198,-0.060268234461545944,-0.0368763692677021,0.0002668973756954074,0.05740783363580704,0.16909873485565186,-0.04395272582769394,-0.17625969648361206,-0.16932019591331482,0.1099359318614006,-0.19709084928035736,0.07847438752651215,-0.06555983424186707,-0.17523933947086334,-0.08454783260822296,0.139857679605484,-0.07862704247236252,-0.04372813180088997,0.1308523267507553,0.028627464547753334,0.1627597212791443,-0.008778028190135956,0.08604439347982407,-0.09012574702501297,0.13295327126979828,-0.16766443848609924,-0.03001256100833416,0.07920557260513306,0.041170407086610794,-0.0009376285597681999,-0.049231432378292084,0.030795887112617493,-0.09042932838201523,0.0769190713763237,0.050765182822942734,0.09325756877660751,0.1431303769350052,-0.08358700573444366,0.039993222802877426,-0.05033305287361145,-0.13825078308582306,0.10143494606018066,0.0037501726765185595,-0.17058265209197998,-0.06519659608602524,0.044597696512937546,0.05259227380156517,0.09721583873033524,-0.16482970118522644,-0.18147745728492737,0.1366642713546753,0.14266659319400787,0.18072400987148285,0.17725668847560883,0.11923319101333618],[-0.1502748280763626,-0.04091661050915718,-0.13577350974082947,0.14978286623954773,-0.15457694232463837,0.021662013605237007,-0.07138639688491821,0.02459016442298889,0.14607757329940796,0.07838474959135056,0.10504394769668579,0.11867701262235641,0.10363082587718964,-0.10505948215723038,0.036199118942022324,0.15770086646080017,-0.1891176700592041,-0.13369758427143097,-0.07002447545528412,0.017949359491467476,-0.07295830547809601,-0.006150037050247192,0.04278700053691864,0.11950156092643738,-0.09590224176645279,-0.06661587208509445,-0.021424949169158936,-0.08541210740804672,0.11559505015611649,-0.08270732313394547,-0.20456784963607788,-0.11004658788442612,-0.1551957130432129,-0.1101301908493042,-0.07378555089235306,0.11808895319700241,-0.03885882720351219,0.02616417594254017,-0.09396899491548538,0.14359860122203827,0.14679521322250366,0.18223141133785248,0.06670162081718445,-0.2046528458595276,-0.14553599059581757,0.18125469982624054,-0.06830614805221558,-0.08817922323942184,0.18595480918884277,-0.02473282627761364,0.057037852704524994,-0.10554695129394531,-0.0059387232176959515,0.19055676460266113,-0.1343202441930771,-0.08613398671150208,-0.11649927496910095,-0.05297781527042389,0.0836716890335083,0.13348539173603058,0.0441046804189682,-0.09438453614711761,-0.13421033322811127,0.06252443790435791,0.12593144178390503,0.12011507898569107,0.011427028104662895,0.11293989419937134,-0.020227447152137756,-0.01877690479159355,0.13721048831939697,-0.09536909312009811,0.07791556417942047,-0.1404656618833542,-0.04034912958741188],[0.1421010047197342,0.10478991270065308,-0.18728888034820557,-0.06641519069671631,-0.19125916063785553,-0.11616391688585281,0.17730900645256042,-0.1728912889957428,0.159251406788826,0.19193309545516968,-0.0378880649805069,-0.1527778059244156,0.20075972378253937,0.05058921128511429,-0.026021549478173256,0.013933218084275723,-0.12613940238952637,0.11295593529939651,0.10460680723190308,-0.04646305739879608,0.10116308927536011,-0.11278126388788223,0.09658612310886383,-0.12489727139472961,0.18377333879470825,-0.1659242808818817,0.13942641019821167,-0.175713911652565,0.08303885161876678,0.014243729412555695,-0.05654651299118996,0.16046229004859924,0.011689404956996441,-0.10377731919288635,0.2014342099428177,0.1816791594028473,-0.12182783335447311,0.07869517803192139,0.1512451022863388,0.09260868281126022,-0.09975450485944748,0.20175758004188538,-0.024807587265968323,-0.1760619580745697,0.06288159638643265,-0.16979888081550598,-0.09919106960296631,-0.16074243187904358,-0.055091492831707,-0.0837353989481926,0.1934952586889267,0.1438647359609604,-0.11257736384868622,-0.12554733455181122,0.006932342890650034,-0.1847543567419052,-0.026579661294817924,0.08183319866657257,-0.05647088587284088,-0.16537530720233917,-0.07456612586975098,-0.12477840483188629,0.20219770073890686,0.15731042623519897,0.021921781823039055,-0.11919773370027542,0.01742049679160118,-0.10384824126958847,-0.09402308613061905,-0.1661308854818344,0.09514781832695007,0.050872962921857834,-0.15203672647476196,-0.1401565968990326,-0.04440753161907196],[0.18854448199272156,-0.07207790017127991,-0.1635006219148636,0.1975085735321045,-0.17404896020889282,-0.11101507395505905,-0.11082278192043304,0.1997222751379013,0.11482302844524384,-0.1225961223244667,-0.0727105587720871,-0.0601046159863472,-0.13218288123607635,-0.10604611784219742,0.1186414361000061,-0.028223946690559387,0.11882814019918442,0.17032180726528168,0.05825696513056755,0.18191121518611908,-0.07756199687719345,-0.05494413152337074,0.09485700726509094,0.03967038542032242,0.03245916590094566,-0.09577330946922302,-0.013283077627420425,0.17765860259532928,-0.18023277819156647,-0.07095485925674438,-0.09730342030525208,0.1995859295129776,-0.05927957594394684,-0.18769137561321259,0.029675036668777466,0.17918094992637634,-0.009076396934688091,0.012489850632846355,0.14465327560901642,0.1270136535167694,-0.04046380892395973,-0.03842531144618988,0.05936477705836296,0.11580055952072144,-0.1413930505514145,0.049850914627313614,0.10220663249492645,-0.07996812462806702,0.14232583343982697,-0.07214201986789703,-0.19059063494205475,0.1154581606388092,0.0674608126282692,0.06177342310547829,0.03494871035218239,0.04880954325199127,0.10672924667596817,-0.004619469400495291,0.1575956493616104,-0.14017240703105927,-0.11896246671676636,-0.15406613051891327,-0.14657779037952423,-0.18024015426635742,0.2000512033700943,-0.1812119036912918,0.01094310637563467,0.1025998443365097,0.03566534444689751,0.2036103457212448,0.007933470420539379,0.1929297149181366,0.023651033639907837,-0.15861476957798004,-0.021755976602435112],[0.11360583454370499,0.19530917704105377,-0.1290534883737564,0.04072687029838562,-0.022739781066775322,0.10066929459571838,0.20410704612731934,0.09139172732830048,0.20007427036762238,-0.10460037738084793,-0.10215236991643906,0.14627763628959656,0.01604367233812809,-0.11582803726196289,0.09847820550203323,0.12504519522190094,-0.046851448714733124,0.13851724565029144,0.16647106409072876,-0.15329670906066895,-0.19034701585769653,0.10065628588199615,0.14381863176822662,0.08913949877023697,-0.10339955985546112,-0.160521000623703,-0.17651121318340302,-0.16481563448905945,-0.19187280535697937,-0.010426097549498081,-0.02303779497742653,0.024963470175862312,-0.13856720924377441,0.03517588600516319,0.12637870013713837,0.07546953111886978,0.08366286754608154,0.030910344794392586,-0.16468845307826996,-0.08006427437067032,-0.08961082994937897,0.19549672305583954,-0.13385558128356934,0.1657843440771103,-0.01060294359922409,-0.13506601750850677,-0.04232722893357277,-0.16760025918483734,0.14535093307495117,-0.11787495017051697,0.10731960088014603,0.08831477165222168,0.008537104353308678,-0.01680484041571617,0.07342682778835297,-0.1585559993982315,0.18817606568336487,0.0461839959025383,-0.18311075866222382,0.006929319351911545,-0.152349054813385,-0.1745716631412506,0.14099207520484924,-0.14594215154647827,0.03381828963756561,0.1637009084224701,0.13459308445453644,-0.026548245921730995,-0.11921028047800064,0.04836784303188324,0.13557234406471252,-0.14537563920021057,0.10584082454442978,-0.05846191570162773,0.07569856196641922],[-0.17735408246517181,-0.020574167370796204,-0.1656503975391388,0.1913398653268814,0.14013738930225372,0.14388488233089447,-0.12154653668403625,0.19186122715473175,-0.17102812230587006,-0.050765082240104675,0.12298191338777542,0.18328063189983368,0.08182787150144577,-0.2001398354768753,0.053713586181402206,0.019170941784977913,0.14555971324443817,-0.1094188466668129,-0.1428402215242386,0.004111647140234709,-0.16036002337932587,-0.20258775353431702,-0.18110476434230804,-0.20368939638137817,-0.1697574257850647,0.06842520833015442,-0.13278105854988098,0.02001037634909153,-0.1750798523426056,0.053825493901968,0.06639093160629272,-0.10777946561574936,-0.17022837698459625,0.16436319053173065,0.15168790519237518,-0.17613159120082855,-0.07575857639312744,-0.06009509041905403,-0.15950454771518707,0.037020035088062286,-0.16936561465263367,-0.0008511226624250412,0.023355992510914803,0.11423786729574203,-0.0776064395904541,0.046459995210170746,0.0606081448495388,0.050117168575525284,-0.06287521868944168,0.13822434842586517,-0.15343953669071198,0.10922221094369888,0.07617323100566864,-0.07682464271783829,0.009521648287773132,0.13231952488422394,-0.10988526046276093,-0.010859045200049877,-0.14350244402885437,-0.06861267238855362,0.0533946193754673,0.12737399339675903,-0.025709599256515503,-0.001607047743164003,0.1377163976430893,0.13590501248836517,-0.16642838716506958,-0.09176728874444962,-0.08329682052135468,0.06381464749574661,-0.07215139269828796,-0.05329500511288643,-0.13208697736263275,-0.1048363596200943,-0.15083768963813782],[-0.08760244399309158,0.045619308948516846,-0.09813889861106873,-0.16603760421276093,0.06205210089683533,0.11243460327386856,0.14196155965328217,-0.08029983937740326,-0.14793284237384796,-0.14486682415008545,0.03164088353514671,0.15147951245307922,0.026866929605603218,-0.12090791016817093,0.032915111631155014,-0.18513353168964386,-0.08691512048244476,0.047578614205121994,-0.15009503066539764,0.14374826848506927,-0.19274085760116577,0.16908426582813263,0.027000421658158302,0.17332981526851654,-0.11048799753189087,-0.00767412269487977,-0.07557501643896103,-0.0888645201921463,-0.15121042728424072,0.013224296271800995,-0.14959655702114105,-0.14542242884635925,-0.17545583844184875,-0.05647572875022888,-0.0759725570678711,-0.14888696372509003,-0.15058310329914093,-0.18355077505111694,-0.11902502924203873,-0.008519168011844158,0.1940055787563324,0.07136179506778717,-0.09401950240135193,0.06987745314836502,-0.08676201105117798,-0.056443337351083755,0.13216237723827362,-0.1760128140449524,-0.15414130687713623,0.03430352732539177,0.016503209248185158,-0.1335887759923935,-0.19316807389259338,-0.11440712213516235,-0.12608568370342255,-0.04591849446296692,-0.083462655544281,0.17770758271217346,-0.19459004700183868,-0.034602340310811996,-0.13595354557037354,0.03709447756409645,-0.005701750982552767,-0.12735861539840698,0.14950819313526154,0.016758639365434647,-0.17364338040351868,0.17358024418354034,-0.0882129892706871,-0.04841921851038933,-0.1006721556186676,0.014823462814092636,-0.14669232070446014,-0.035650089383125305,0.06418679654598236],[0.0840015634894371,0.13923139870166779,-0.12765643000602722,-0.046317510306835175,0.04548545181751251,-0.09711544215679169,-0.04027649015188217,-0.10041569918394089,0.1910487413406372,0.18924586474895477,-0.06718703359365463,0.005264179315418005,-0.20401397347450256,-0.1953652948141098,-0.13712094724178314,-0.057859957218170166,0.09572889655828476,0.10084433853626251,-0.06526433676481247,0.003908216021955013,0.18079370260238647,-0.11129043251276016,-0.2049034684896469,0.007257988676428795,-0.11628895252943039,-0.03638606518507004,-0.0720977783203125,-0.07503622770309448,0.15940596163272858,0.11041460931301117,-0.1538712978363037,-0.09766310453414917,0.020344218239188194,0.16715873777866364,-0.0656224712729454,-0.06839321553707123,0.19253641366958618,-0.1096763089299202,0.17963072657585144,-0.2063228040933609,0.07918184995651245,-0.18795208632946014,-0.16191163659095764,0.015184606425464153,0.008273209445178509,-0.023987948894500732,-0.19081883132457733,-0.06826307624578476,-0.10346382856369019,-0.19646331667900085,0.12376945465803146,0.08787357807159424,0.002210787497460842,0.04422447085380554,-0.16097834706306458,-0.005243364255875349,-0.14148350059986115,0.17603108286857605,0.17928922176361084,0.09627304971218109,-0.18109190464019775,0.12354717403650284,0.16878196597099304,-0.1142888218164444,0.08326050639152527,0.04834242910146713,0.1794581115245819,0.052531857043504715,-0.13122867047786713,0.029556840658187866,0.10589569807052612,0.07836191356182098,0.034569788724184036,-0.1047191172838211,-0.030875517055392265],[0.1252780705690384,-0.09356199204921722,0.1927689164876938,-0.1849111169576645,-0.1617114096879959,-0.07213176041841507,0.09764260053634644,0.08643084764480591,-0.1454300582408905,0.1187330037355423,0.051999688148498535,0.20578058063983917,0.04219618812203407,0.020725658163428307,0.17259448766708374,0.10522907972335815,0.16326691210269928,0.19182893633842468,-0.06985883414745331,0.10154236108064651,-0.07671187818050385,-0.0973617359995842,0.209815114736557,0.044148221611976624,-0.013858822174370289,0.09400200098752975,0.10611315071582794,0.031422242522239685,0.09239830076694489,-0.018883222714066505,0.152478888630867,0.18056313693523407,0.16813057661056519,-0.16017857193946838,-0.09347584843635559,-0.08118271827697754,-0.023076603189110756,0.1160711795091629,-0.13526581227779388,0.06821824610233307,0.08914180845022202,0.09637826681137085,0.04466509073972702,-0.006481077056378126,-0.1492050290107727,0.00036676559830084443,-0.020985718816518784,0.16123522818088531,0.02492147870361805,0.18367470800876617,-0.10698297619819641,-0.18309183418750763,-0.04074176773428917,0.06956568360328674,0.03385801240801811,-0.04748229309916496,-0.15123280882835388,0.08448933809995651,0.06374797970056534,0.04859704151749611,-0.11090458929538727,0.02275026962161064,0.005102410912513733,-0.10464988648891449,-0.15888366103172302,0.20746634900569916,0.06983233243227005,-0.14075827598571777,-0.03741778805851936,-0.14043256640434265,0.11304273456335068,0.0028290818445384502,-0.03825515881180763,0.05498213693499565,-0.13307787477970123],[0.2013700157403946,0.06243417412042618,-0.12520194053649902,0.1323080062866211,0.17079883813858032,0.0779501274228096,0.034344516694545746,-0.09398820996284485,0.11298263818025589,0.0881650298833847,0.08786111325025558,-0.14420421421527863,-0.047568924725055695,0.013629550114274025,-0.09271787852048874,-0.11378885060548782,0.07161411643028259,-0.09638763219118118,-0.14947150647640228,0.038937002420425415,-0.06630951166152954,0.19310036301612854,-0.14356295764446259,0.12584006786346436,-0.1661076545715332,0.0848337933421135,0.1128871962428093,-0.11642146110534668,0.1693921536207199,-0.17834603786468506,-0.03944838419556618,0.026296956464648247,-0.07310453057289124,-0.06210363283753395,0.0560825951397419,0.14452645182609558,-0.009615429677069187,-0.14772506058216095,-0.08688151836395264,0.017153002321720123,0.011394972912967205,0.20766301453113556,-0.06615976989269257,0.14877952635288239,0.06761711090803146,-0.02421337552368641,-0.04408050328493118,0.08702711015939713,-0.12364247441291809,0.13041184842586517,-0.179482102394104,-0.10799862444400787,0.006445295177400112,-0.04159021005034447,-0.049313683062791824,0.007555310148745775,0.002367765409871936,0.026151316240429878,-0.07322196662425995,-0.053666502237319946,0.03280387446284294,-0.06587834656238556,0.19093634188175201,-0.045489825308322906,0.1234922781586647,0.06852072477340698,-0.12473604828119278,-0.10855813324451447,-0.1765102744102478,0.1662611961364746,-0.16271433234214783,0.1665320247411728,0.0016697985120117664,0.1955159455537796,-0.17147451639175415],[-0.1513020098209381,0.10028652101755142,-0.14828439056873322,-0.14835891127586365,-0.11659400165081024,0.05428694188594818,0.0908765196800232,-0.03769310563802719,0.0984572172164917,0.15207239985466003,-0.151462122797966,-0.06456317752599716,0.013766981661319733,0.10544552654027939,-0.17145273089408875,0.04756222665309906,0.14546240866184235,-0.06456221640110016,0.02981325052678585,0.05405190959572792,-0.13636882603168488,0.041781071573495865,0.08578823506832123,-0.09783592075109482,0.04216120392084122,-0.08720232546329498,-0.12482614070177078,-0.018487980589270592,-0.10654493421316147,-0.1642511636018753,0.1615438163280487,0.036909330636262894,-0.04023095220327377,-0.022612765431404114,-0.06427377462387085,0.11052770912647247,0.10669001191854477,0.07449514418840408,0.16271540522575378,0.14199967682361603,0.14172475039958954,0.10561314970254898,-0.10188981145620346,0.18739227950572968,0.19042906165122986,0.18262721598148346,-0.17076680064201355,0.05202941223978996,0.19517488777637482,-0.07794371247291565,0.1186511442065239,-0.05886907875537872,0.03210792690515518,0.13253891468048096,0.13398480415344238,0.053752731531858444,0.012082614935934544,-0.1744588017463684,-0.11949337273836136,-0.03720652312040329,0.1251930594444275,0.07085373997688293,-0.1331048160791397,0.035698339343070984,-0.015777435153722763,0.20844337344169617,0.11381901800632477,0.1778867095708847,0.03746714070439339,-0.029225533828139305,0.009305805899202824,0.1326015293598175,-0.15360283851623535,-0.1813875436782837,-0.15579330921173096],[-0.119923897087574,0.010828842408955097,0.027915410697460175,-0.14246751368045807,0.18161541223526,0.013577272184193134,0.13339076936244965,-0.16884343326091766,-0.032088495790958405,-0.14107637107372284,0.025752590969204903,0.16730986535549164,-0.10247976332902908,-0.10388161242008209,-0.028642483055591583,0.20871329307556152,0.11713855713605881,-0.16889794170856476,-0.18419931828975677,0.13972440361976624,0.15724511444568634,0.03543645516037941,-0.10021033883094788,0.15577620267868042,-0.1234997883439064,0.1449931263923645,-0.013156486675143242,0.10891949385404587,0.042034316807985306,0.15128740668296814,-0.07321858406066895,-0.08502241224050522,0.11171616613864899,-0.07801266014575958,0.18197306990623474,0.17107100784778595,-0.07812628895044327,0.16803665459156036,-0.11077860742807388,0.19821862876415253,0.1410495638847351,0.1357431709766388,0.11246435344219208,-0.16749030351638794,-0.18463261425495148,0.1694284826517105,-0.1043049544095993,-0.0008833476458676159,0.11238428205251694,-0.1049884706735611,-0.07097183167934418,-0.06233564391732216,0.08799956738948822,0.18222275376319885,-0.1289951652288437,0.06779211759567261,0.12684759497642517,0.07723498344421387,0.20798160135746002,0.09928606450557709,0.16450035572052002,-0.10410498827695847,0.18638648092746735,-0.08519481122493744,-0.11485879868268967,-0.15346001088619232,-0.11901552230119705,0.11432662606239319,0.17378410696983337,-0.18671098351478577,0.14287647604942322,0.0021294457837939262,-0.04028812050819397,-0.08511175215244293,-0.17820821702480316],[-0.18312858045101166,-0.10859659314155579,0.03664064034819603,0.041462402790784836,0.11777862906455994,-0.18370796740055084,0.05014196038246155,0.005380263086408377,0.030390875414013863,0.17302247881889343,0.10003981739282608,-0.09983484447002411,0.13715589046478271,-0.10684742778539658,0.033511798828840256,-0.19217945635318756,0.20428220927715302,-0.06520181894302368,0.017182106152176857,-0.026848062872886658,0.016735894605517387,0.15674707293510437,-0.1506217122077942,0.20204922556877136,-0.1664549708366394,0.10973294824361801,-0.11241255700588226,0.19974969327449799,0.12166745215654373,0.12218739092350006,-0.19331581890583038,-0.11737847328186035,-0.09387931227684021,0.18212740123271942,0.20436160266399384,-0.1677832305431366,-0.1603500247001648,0.11315158754587173,-0.13600176572799683,-0.02867935039103031,-0.059957027435302734,0.19242048263549805,-0.03514773026108742,0.13172800838947296,-0.04040347784757614,0.1362496167421341,-0.14314872026443481,-0.10067974030971527,-0.1931617558002472,-0.19113682210445404,-0.1882421374320984,0.10626204311847687,0.1449941247701645,-0.03997453674674034,0.11707238852977753,0.0134691521525383,0.06806137412786484,-0.047457292675971985,0.004657717887312174,-0.023759879171848297,0.0418165847659111,0.10062748938798904,0.012563160620629787,-0.07135441154241562,0.09650719165802002,-0.014844920486211777,0.10686266422271729,0.10144003480672836,-0.1250746101140976,-0.03303222358226776,-0.11234555393457413,0.048154570162296295,-0.17147968709468842,-0.07215505093336105,-0.11122705787420273],[0.016089430078864098,-0.15179644525051117,-0.16693034768104553,0.010740308091044426,0.18430973589420319,0.0930279940366745,0.006817428860813379,0.04940680041909218,-0.1663820445537567,-0.03216175734996796,-0.01618012972176075,0.10249938815832138,-0.05775607004761696,-0.19425776600837708,-0.12712326645851135,-0.09923380613327026,0.15271736681461334,0.02954917587339878,0.0039137983694672585,0.09764387458562851,0.1229819655418396,0.1561228632926941,0.15582910180091858,0.0220243688672781,-0.06254564225673676,0.17337849736213684,-0.03987988084554672,0.1284920573234558,-0.1058180034160614,0.1490158885717392,0.14682665467262268,0.07951207458972931,-0.17717760801315308,0.04091085493564606,0.1981302797794342,-0.09260008484125137,-0.17425832152366638,-0.07091701030731201,-0.080610491335392,-0.16972815990447998,-0.04534333199262619,-0.1022130623459816,-0.09737779200077057,0.05064458027482033,-0.1329025775194168,-0.1275663822889328,-0.12350699305534363,-0.17348749935626984,0.03766706585884094,-0.10759218037128448,-0.03776059299707413,-0.11011802405118942,0.11953934282064438,0.1117086410522461,-0.09560296684503555,0.06686192750930786,-0.14798006415367126,0.11675141006708145,-0.19166405498981476,0.015509430319070816,0.042976345866918564,-0.02405591867864132,-0.015552954748272896,-0.03499843180179596,-0.18079711496829987,-0.033429279923439026,-0.15477274358272552,0.09957819432020187,0.11685241758823395,-0.15857051312923431,-0.1883452832698822,-0.0685030147433281,-0.19054652750492096,-0.1665906012058258,0.04962090030312538],[0.023780228570103645,-0.04553462937474251,0.07501400262117386,-0.028217410668730736,0.18526233732700348,-0.10549809783697128,0.17384418845176697,0.14183661341667175,-0.15796047449111938,0.11863403767347336,-0.15163281559944153,0.15570175647735596,-0.03535666689276695,0.10063258558511734,0.02176683582365513,-0.1348641961812973,-0.1925697773694992,-0.13506029546260834,-0.16924448311328888,-0.15402717888355255,-0.02093539945781231,0.149229496717453,0.15486657619476318,0.09736891090869904,-0.17290644347667694,0.04481716454029083,-0.04286618158221245,0.0509524829685688,-0.05456055328249931,0.10809513181447983,0.11692385375499725,-0.12089964002370834,0.00248180003836751,-0.055285435169935226,0.14566196501255035,0.054518554359674454,-0.07734335958957672,-0.18498513102531433,0.06832971423864365,0.05784684047102928,0.012388558126986027,-0.06284916400909424,0.14418089389801025,0.14754141867160797,-0.035320546478033066,0.007911515422165394,-0.1219601184129715,0.14893750846385956,-0.08918895572423935,0.04618441313505173,-0.14560317993164062,-0.061647169291973114,-0.11258622258901596,0.14137789607048035,0.12357298284769058,0.10356433689594269,0.13743062317371368,0.03318781033158302,-0.07490991801023483,0.1463032066822052,-0.18165263533592224,-0.1280827671289444,0.06994879245758057,-0.006949266418814659,-0.0005445635179057717,0.01760515756905079,0.022922325879335403,0.020906643941998482,-0.13127070665359497,0.0948297455906868,0.12114337831735611,0.09226997941732407,-0.16229577362537384,0.15787719190120697,0.009197705425322056],[0.19182012975215912,0.1327837109565735,0.10331929475069046,-0.1462971568107605,0.018144095316529274,0.06856613606214523,0.09891939163208008,-0.044781945645809174,-0.008567778393626213,0.05361010134220123,-0.14427399635314941,0.0009194383746944368,0.06430181860923767,0.11265522241592407,0.10675238072872162,0.1614532470703125,-0.17182867228984833,0.09195713698863983,0.04920067638158798,0.0428360253572464,0.18278810381889343,0.15927410125732422,0.023443272337317467,0.015634257346391678,0.16284839808940887,-0.061765559017658234,0.0831192210316658,0.035585884004831314,0.12133977562189102,0.126168891787529,0.03158764913678169,-0.029197193682193756,0.15521340072155,0.023412754759192467,0.11900067329406738,0.1122448593378067,-0.06723673641681671,-0.02177790366113186,0.12248644977807999,-0.05278646573424339,0.16266797482967377,0.12363111972808838,-0.0383857786655426,-0.01610850729048252,-0.07722104340791702,-0.18569353222846985,0.03617975860834122,0.03729932755231857,0.17311961948871613,0.13338810205459595,-0.14604739844799042,-0.054930366575717926,-0.07826992124319077,0.14448097348213196,-0.1759929358959198,-0.1480710506439209,-0.10260163992643356,0.19590379297733307,0.08091633021831512,-0.13203559815883636,0.18393714725971222,-0.18843765556812286,0.13341404497623444,0.05749082937836647,0.05688626319169998,-0.01465684361755848,-0.057106293737888336,0.04385160282254219,-0.04209252819418907,0.17742103338241577,0.17243510484695435,-0.0017129932530224323,-0.14225053787231445,0.08730272948741913,-0.13255701959133148],[-0.0617590956389904,-0.12958793342113495,0.19475050270557404,-0.04689142853021622,0.009075486101210117,0.1515023559331894,-0.17766517400741577,-0.16941657662391663,-0.04174678400158882,0.1828010380268097,0.045580700039863586,-0.0488051138818264,0.15631842613220215,-0.14697976410388947,0.03479885309934616,-0.032264333218336105,0.149766206741333,-0.12176764011383057,0.060908474028110504,-0.19647768139839172,-0.11743531376123428,0.09533385187387466,-0.043892454355955124,0.17714166641235352,0.025821316987276077,0.15911929309368134,-0.048916906118392944,-0.1793828308582306,0.10089989751577377,-0.04065609350800514,0.17978453636169434,0.08769045770168304,-0.00977792777121067,-0.046024877578020096,-0.16771580278873444,-0.1283855140209198,0.1321740746498108,-0.03528427705168724,0.056399185210466385,0.1349446028470993,0.019248848780989647,-0.09743532538414001,0.19666831195354462,-0.1288146674633026,-0.10451874881982803,-0.05039697140455246,0.06156814098358154,-0.09333837032318115,0.04027491807937622,0.183964803814888,-0.03164790943264961,-0.12834322452545166,0.022619951516389847,0.14624546468257904,0.02426724322140217,-0.13955186307430267,-0.10439185053110123,0.16170768439769745,-0.06768687069416046,0.19500161707401276,0.1912575513124466,0.1099022701382637,0.004566119518131018,-0.11876232922077179,0.19201180338859558,-0.15812349319458008,-0.14030976593494415,0.11715599149465561,0.14895690977573395,-0.02798481099307537,-0.03190391883254051,-0.05158967524766922,-0.11107440292835236,0.011843567714095116,-0.07774782180786133],[0.008720781654119492,0.05507730692625046,0.11123590171337128,0.19617216289043427,-0.07008729875087738,-0.18400833010673523,0.05720251426100731,-0.11947579681873322,0.1107310876250267,0.1826806515455246,-0.05781581625342369,0.04515863582491875,0.10051020234823227,-0.17999176681041718,-0.021398210898041725,-0.033541981130838394,0.1188383400440216,0.06499265879392624,-0.07011069357395172,-0.03762316703796387,0.1502692699432373,-0.11291074752807617,0.05422716215252876,-0.13366030156612396,-0.0015776107320562005,0.14182865619659424,0.14699789881706238,-0.13062706589698792,0.007327246945351362,0.047768957912921906,0.20047453045845032,0.022747037932276726,0.19490309059619904,0.02167578600347042,0.09741999208927155,-0.10691750794649124,-0.050359491258859634,0.10504847019910812,0.05997244641184807,0.04059002920985222,-0.033235102891922,-0.07567992061376572,0.17422360181808472,0.051208656281232834,0.1300615519285202,-0.10008765757083893,0.14871001243591309,-0.11673212051391602,-0.04489179700613022,0.08819402754306793,-0.12476176768541336,0.00803101621568203,0.08533565700054169,0.13754983246326447,-0.12202244251966476,-0.023920252919197083,-0.13995681703090668,-0.03773617744445801,0.14148065447807312,-0.11955426633358002,-0.04428011178970337,-0.1851842701435089,-0.08064945042133331,0.1669214516878128,0.18668557703495026,0.03411659225821495,0.19613507390022278,-0.18442092835903168,-0.15090759098529816,-0.010576396249234676,-0.07184359431266785,-0.04602333903312683,0.14267243444919586,0.11037223786115646,0.00635660020634532],[-0.09214359521865845,0.17935512959957123,0.17478100955486298,-0.12848080694675446,-0.11536013334989548,0.07340094447135925,0.02688419260084629,-0.1268252581357956,-0.09192520380020142,0.0020045561250299215,0.15283963084220886,0.13517999649047852,0.08794579654932022,-0.015811750665307045,0.03859976679086685,0.14292772114276886,-0.11295946687459946,0.0637185201048851,-0.07041941583156586,-0.1678594946861267,-0.14405444264411926,0.11363130062818527,0.027268586680293083,-0.046705931425094604,-0.18769243359565735,-0.04283970221877098,-0.14672355353832245,0.15715457499027252,0.15195311605930328,-0.08456100523471832,0.015334277413785458,-0.10652981698513031,-0.16044306755065918,0.1319446861743927,0.183380588889122,-0.11485865712165833,-0.006520927418023348,0.09501270204782486,0.10522414743900299,-0.12057782709598541,-0.11044223606586456,-0.06447677314281464,-0.063650943338871,0.11089532822370529,0.0384993776679039,-0.01458002906292677,0.17448537051677704,0.17901639640331268,-0.08190318197011948,0.1524316519498825,-0.06495114415884018,0.06969763338565826,0.022534480318427086,0.08993368595838547,0.04286254197359085,-0.030400345101952553,0.04399803653359413,0.19741587340831757,-0.18983589112758636,-0.17936289310455322,0.07864916324615479,0.1944226622581482,0.17266131937503815,0.11365512013435364,0.17885562777519226,-0.004972607828676701,-0.13092440366744995,-0.1160680279135704,0.1664893478155136,-0.05055265501141548,-0.13235341012477875,-0.16009244322776794,0.17923781275749207,-0.1331402063369751,-0.07231935113668442],[-0.06176944077014923,0.03161093220114708,0.04206658899784088,0.16169802844524384,0.03186550736427307,-0.15464073419570923,0.09891705214977264,-0.09517847001552582,-0.17631034553050995,-0.020012004300951958,0.009110077284276485,-0.14712393283843994,-0.04519627243280411,0.03839704766869545,0.0025890718679875135,-0.09356512129306793,0.12863852083683014,0.1449763923883438,-0.07528261095285416,0.10523644834756851,-0.16952145099639893,0.11236754804849625,0.1307896226644516,-0.026792705059051514,-0.18517471849918365,-0.03546876832842827,-0.11075706034898758,0.0513371005654335,0.10253507643938065,-0.010637275874614716,0.12906582653522491,0.0896814689040184,0.1683308482170105,-0.16184788942337036,-0.19175802171230316,-0.03990960121154785,0.19158484041690826,-0.07939038425683975,0.15304957330226898,0.19791927933692932,0.06041819229722023,0.18123666942119598,-0.06532716751098633,0.014971990138292313,-0.07884465903043747,0.0840192586183548,-0.09509240090847015,-0.17896738648414612,0.10929208993911743,-0.06106540933251381,0.14564445614814758,0.04555272310972214,0.13521774113178253,0.1558515429496765,-0.0912158265709877,0.1380131095647812,-0.1658450961112976,-0.03444913029670715,0.19973193109035492,-0.014441084116697311,-0.11380315572023392,0.11173289269208908,-0.00961605366319418,0.06110566481947899,0.07870309054851532,-0.16115719079971313,0.010768161155283451,0.09657733887434006,0.20095078647136688,0.0663609728217125,-0.02878951095044613,0.1463335007429123,0.08190178871154785,0.158628910779953,0.049633949995040894],[-0.1164613664150238,-0.046331651508808136,0.16431613266468048,-0.10114255547523499,0.17573349177837372,-0.168253093957901,0.13084641098976135,-0.06521253287792206,-0.016448190435767174,0.19604578614234924,-0.09057824313640594,0.16649344563484192,0.008001284673810005,0.04655107483267784,0.1361822634935379,-0.07828118652105331,0.03861318528652191,0.03053659200668335,-0.07800571620464325,0.15627160668373108,0.043670956045389175,-0.04787403717637062,0.0986647978425026,-0.0986325740814209,0.025374114513397217,0.07668512314558029,0.091664157807827,0.036448705941438675,-0.15093496441841125,-0.026516996324062347,-0.052954841405153275,0.10465860366821289,0.002558051608502865,-0.08522004634141922,0.17561334371566772,0.15430058538913727,-0.07511477917432785,0.09498132765293121,0.002906396519392729,0.035514235496520996,0.15776702761650085,0.07718060165643692,-0.08480320870876312,-0.10739552974700928,-0.16381241381168365,-0.02470863051712513,0.013648079708218575,0.07091931998729706,0.12001590430736542,0.17224887013435364,0.11720512062311172,-0.05424190312623978,-0.09986438602209091,0.01624007150530815,-0.11696718633174896,0.03481723368167877,-0.13370229303836823,0.0676904246211052,0.12743285298347473,-0.0701146200299263,-0.058407559990882874,0.09909974783658981,-0.15606588125228882,0.1763133406639099,0.09449615329504013,0.15808972716331482,0.15704821050167084,-0.04029945284128189,0.034276146441698074,0.16569297015666962,0.11857087165117264,-0.16484153270721436,-0.0668119341135025,-0.012884369120001793,-0.04386424273252487],[0.15544605255126953,-0.04066065326333046,0.07714910805225372,-0.05379599332809448,-0.14273984730243683,0.10670996457338333,0.01255597360432148,-0.05399508401751518,-0.10769738256931305,0.16957660019397736,-0.11415910720825195,0.13656051456928253,-0.17038719356060028,0.11323876678943634,0.05449902266263962,-0.09509603679180145,0.1808793991804123,0.008026177063584328,-0.17575980722904205,-0.018216518685221672,-0.17959347367286682,-0.021112730726599693,-0.14727014303207397,0.06312911212444305,-0.1472412794828415,-0.05252838507294655,0.005110430996865034,0.12103299051523209,0.20064905285835266,-0.12861403822898865,-0.16462886333465576,0.1571846306324005,0.19439972937107086,0.13196584582328796,0.16503919661045074,0.11755341291427612,0.19660216569900513,0.18553906679153442,0.15377019345760345,-0.01789163611829281,-0.18187874555587769,0.01616710051894188,0.05098690837621689,-0.17976701259613037,-0.00031858368311077356,-0.002556229243054986,0.1787048578262329,-0.08156705647706985,0.09640767425298691,-0.19430291652679443,0.003469032235443592,-0.15304125845432281,0.1719416379928589,0.13612809777259827,0.02511105313897133,0.1563178449869156,-0.08544228971004486,-0.028278298676013947,0.14565321803092957,0.17005690932273865,-0.1833334118127823,-0.050612326711416245,0.1886078417301178,0.04527879133820534,0.19889120757579803,-0.15542665123939514,-0.09772035479545593,0.003935868386179209,0.15497726202011108,-0.14895686507225037,0.1184561625123024,0.17607435584068298,-0.11646460741758347,0.014651736244559288,-0.16728819906711578],[0.1958395540714264,0.07609866559505463,0.151490718126297,0.04255964234471321,-0.024525441229343414,-0.08075565099716187,0.14495183527469635,-0.09604436904191971,-0.17164219915866852,0.1000346690416336,-0.044873181730508804,-0.18134692311286926,0.15279114246368408,-0.14283356070518494,0.060148935765028,0.11255703866481781,0.10644058138132095,-0.10773653537034988,-0.13238710165023804,-0.14655376970767975,-0.14458881318569183,-0.037822116166353226,0.03381272777915001,0.18425031006336212,-0.1693653017282486,0.08881254494190216,0.11188866943120956,0.1253591924905777,-0.032776325941085815,-0.1825188547372818,-0.1289425641298294,-0.08797093480825424,-0.04168044403195381,-0.08153440803289413,0.04708205536007881,0.04058177024126053,0.03783625736832619,-0.06812149286270142,-0.030723340809345245,0.14095818996429443,0.0903378278017044,-0.08050934970378876,-0.11548994481563568,-0.1567431092262268,-0.001879048184491694,0.14499269425868988,-0.0032068700529634953,0.07719995826482773,0.17999203503131866,0.007860159501433372,0.18005315959453583,0.12887747585773468,0.07800759375095367,-0.15775619447231293,0.1452178955078125,0.17296729981899261,0.10124307870864868,0.06253413110971451,-0.05855867266654968,-0.13706406950950623,0.06970759481191635,-0.06608942896127701,-0.1111534908413887,0.056742530316114426,0.1339397430419922,0.12845170497894287,0.021750058978796005,-0.001771392417140305,0.0667404979467392,-0.044620562344789505,0.0774303451180458,0.014892179518938065,-0.0581335574388504,0.06200750544667244,0.10048292577266693],[0.17116616666316986,-0.08771836757659912,-0.10645093023777008,-0.10269133746623993,-0.013488790020346642,-0.20473086833953857,0.10978083312511444,0.1440255343914032,-0.028283067047595978,0.19084787368774414,-0.20535434782505035,0.0353277213871479,0.06892607361078262,-0.18300728499889374,-0.15890567004680634,-0.052258238196372986,-0.12285120785236359,0.16023068130016327,-0.2037849873304367,-0.09787534922361374,0.18944339454174042,-0.20013417303562164,0.14536893367767334,0.05339307337999344,0.020540885627269745,0.11409208178520203,-0.18420091271400452,0.0975017324090004,-0.00027289550052955747,-0.1230091080069542,-0.12111244350671768,0.19431883096694946,0.08813685923814774,0.14997898042201996,-0.15005473792552948,0.029477477073669434,0.07976046949625015,-0.08488298952579498,-0.05437592417001724,-0.03456087410449982,-0.12006538361310959,-0.1286325454711914,-0.12120059132575989,0.055346451699733734,0.09569547325372696,-0.04767376929521561,0.0753173977136612,0.13622644543647766,-0.20264756679534912,0.0037229633890092373,-0.14454174041748047,-0.15520966053009033,0.06761645525693893,-0.12615537643432617,-0.10117895901203156,-0.18687258660793304,0.013165623880922794,-0.04355665296316147,0.015236424282193184,-0.07409348338842392,-0.1580003947019577,-0.05582725256681442,0.08610334992408752,-0.15717202425003052,-0.0846434086561203,0.15334217250347137,0.16620570421218872,-0.07389774918556213,0.0744239091873169,-0.14963990449905396,-0.0023744218051433563,0.16719834506511688,-0.10281212627887726,-0.12070108205080032,-0.1459772139787674]],"biases":[-0.060529422014951706,-0.06898162513971329,0.09532885998487473,0.023668654263019562,0.07292061299085617,-0.09305121004581451,-0.08871348202228546,0.17057836055755615,-0.11144714802503586,-0.12006045877933502,0.001557153882458806,-0.10078106820583344,0.07425220310688019,-0.12793724238872528,-0.032327983528375626,0.006728944834321737,-0.09059961885213852,0.012602400034666061,0.021152660250663757,0.15123288333415985,-0.09873692691326141,0.0842241644859314,-0.035825684666633606,0.16250848770141602,0.20923033356666565,0.17135681211948395,0.06420551240444183,0.08579733967781067,-0.05749400332570076,-0.008505287580192089,0.0999787375330925,0.16973921656608582,-0.12594884634017944,0.032074831426143646,-0.18008439242839813,0.004491887055337429,-0.013471165671944618]},{"weights":[[-0.038144301623106,0.2858699858188629,0.15356522798538208,0.14417821168899536,0.33207377791404724,0.043326154351234436,0.06463990360498428,-0.01353971567004919,0.17181800305843353,0.1933097541332245,0.3199368417263031,0.11526575684547424,-0.06680616736412048,-0.013617127202451229,-0.06116478890180588,0.10653457790613174,0.17688226699829102,0.19063788652420044,-0.08540192246437073,-0.167262464761734,-0.07180353999137878,0.34418267011642456,0.23026536405086517,0.26736122369766235,0.3137570023536682,0.1686185598373413,0.10827567428350449,0.031640782952308655,0.3135499060153961,0.049407802522182465,0.25049808621406555,0.20219692587852478,0.14514882862567902,0.15570999681949615,0.12117016315460205,0.2782260775566101,-0.13827207684516907]],"biases":[0.03595805913209915]}],"inputLookup":{"0":0,"1":1,"2":2,"3":3,"4":4,"5":5,"6":6,"7":7,"8":8,"9":9,"10":10,"11":11,"12":12,"13":13,"14":14,"15":15,"16":16,"17":17,"18":18,"19":19,"20":20,"21":21,"22":22,"23":23,"24":24,"25":25,"26":26,"27":27,"28":28,"29":29,"30":30,"31":31,"32":32,"33":33,"34":34,"35":35,"36":36,"37":37,"38":38,"39":39,"40":40,"41":41,"42":42,"43":43,"44":44,"45":45,"46":46,"47":47,"48":48,"49":49,"50":50,"51":51,"52":52,"53":53,"54":54,"55":55,"56":56,"57":57,"58":58,"59":59,"60":60,"61":61,"62":62,"63":63,"64":64,"65":65,"66":66,"67":67,"68":68,"69":69,"70":70,"71":71,"72":72,"73":73,"74":74},"inputLookupLength":75,"outputLookup":{"Lapis":0},"outputLookupLength":1,"options":{"inputSize":0,"outputSize":0,"binaryThresh":0.5},"trainOpts":{"activation":"sigmoid","iterations":1,"errorThresh":0.005,"log":true,"logPeriod":10,"leakyReluAlpha":0.01,"learningRate":0.3,"momentum":0.1,"callbackPeriod":10,"timeout":"Infinity","beta1":0.9,"beta2":0.999,"epsilon":1e-8}}